digraph Tree {
node [shape=box, style="filled, rounded", color="black", fontname=helvetica] ;
edge [fontname=helvetica] ;
0 [label="氨酸 <= 755.0\nentropy = 1.567\nsamples = 124\nvalue = [40, 50, 34]\nclass = 雪莉", fillcolor="#39e5811e"] ;
1 [label="稀释 <= 2.1\nentropy = 0.956\nsamples = 77\nvalue = [0, 48, 29]\nclass = 雪莉", fillcolor="#39e58165"] ;
0 -> 1 [labeldistance=2.5, labelangle=45, headlabel="True"] ;
2 [label="色调 <= 0.83\nentropy = 0.459\nsamples = 31\nvalue = [0, 3, 28]\nclass = 贝尔摩德", fillcolor="#8139e5e4"] ;
1 -> 2 ;
3 [label="entropy = 0.0\nsamples = 25\nvalue = [0, 0, 25]\nclass = 贝尔摩德", fillcolor="#8139e5ff"] ;
2 -> 3 ;
4 [label="酒精 <= 13.395\nentropy = 1.0\nsamples = 6\nvalue = [0, 3, 3]\nclass = 雪莉", fillcolor="#39e58100"] ;
2 -> 4 ;
5 [label="entropy = 0.0\nsamples = 3\nvalue = [0, 3, 0]\nclass = 雪莉", fillcolor="#39e581ff"] ;
4 -> 5 ;
6 [label="entropy = 0.0\nsamples = 3\nvalue = [0, 0, 3]\nclass = 贝尔摩德", fillcolor="#8139e5ff"] ;
4 -> 6 ;
7 [label="类黄酮 <= 0.745\nentropy = 0.151\nsamples = 46\nvalue = [0, 45, 1]\nclass = 雪莉", fillcolor="#39e581f9"] ;
1 -> 7 ;
8 [label="entropy = 0.0\nsamples = 1\nvalue = [0, 0, 1]\nclass = 贝尔摩德", fillcolor="#8139e5ff"] ;
7 -> 8 ;
9 [label="entropy = 0.0\nsamples = 45\nvalue = [0, 45, 0]\nclass = 雪莉", fillcolor="#39e581ff"] ;
7 -> 9 ;
10 [label="色调 <= 0.785\nentropy = 0.736\nsamples = 47\nvalue = [40, 2, 5]\nclass = 琴酒", fillcolor="#e58139d4"] ;
0 -> 10 [labeldistance=2.5, labelangle=-45, headlabel="False"] ;
11 [label="entropy = 0.0\nsamples = 5\nvalue = [0, 0, 5]\nclass = 贝尔摩德", fillcolor="#8139e5ff"] ;
10 -> 11 ;
12 [label="颜 色强度 <= 3.525\nentropy = 0.276\nsamples = 42\nvalue = [40, 2, 0]\nclass = 琴酒", fillcolor="#e58139f2"] ;
10 -> 12 ;
13 [label="entropy = 0.0\nsamples = 2\nvalue = [0, 2, 0]\nclass = 雪莉", fillcolor="#39e581ff"] ;
12 -> 13 ;
14 [label="entropy = 0.0\nsamples = 40\nvalue = [40, 0, 0]\nclass = 琴酒", fillcolor="#e58139ff"] ;
12 -> 14 ;
}